<?xml version="1.0"?>
<opencv_storage>
<car70 type_id="opencv-haar-classifier">
  <size>
    24 24</size>
  <stages>
    <_>
      <trees>
        <_>
          <_>
            <feature>
              <rects>
                <_>
                  7 12 8 8 -1.</_>
                <_>
                  7 14 8 4 2.</_></rects>
              <tilted>0</tilted></feature>
            <threshold>0.0304293707013130</threshold>
            <left_val>-0.8152347207069397</left_val>
            <right_val>0.9617580175399780</right_val></_></_>
        <_>
          <_>
            <feature>
              <rects>
                <_>
                  8 1 12 9 -1.</_>
                <_>
                  8 4 12 3 3.</_></rects>
              <tilted>0</tilted></feature>
            <threshold>0.0438430681824684</threshold>
            <left_val>-0.5093063116073608</left_val>
            <right_val>0.7261834740638733</right_val></_></_></trees>
      <stage_threshold>-0.0890512466430664</stage_threshold>
      <parent>-1</parent>
      <next>-1</next></_>
    <_>
      <trees>
        <_>
          <_>
            <feature>
              <rects>
                <_>
                  5 10 14 14 -1.</_>
                <_>
                  5 17 14 7 2.</_></rects>
              <tilted>0</tilted></feature>
            <threshold>-0.1172005012631416</threshold>
            <left_val>0.7812501192092896</left_val>
            <right_val>-0.9999994039535523</right_val></_></_></trees>
      <stage_threshold>0.7812501192092896</stage_threshold>
      <parent>0</parent>
      <next>-1</next></_>
    <_>
      <trees>
        <_>
          <_>
            <feature>
              <rects>
                <_>
                  0 20 10 4 -1.</_>
                <_>
                  0 21 10 2 2.</_></rects>
              <tilted>0</tilted></feature>
            <threshold>-3.5464789252728224e-003</threshold>
            <left_val>0.7014927268028259</left_val>
            <right_val>-0.9999992847442627</right_val></_></_></trees>
      <stage_threshold>0.7014927268028259</stage_threshold>
      <parent>1</parent>
      <next>-1</next></_>
    <_>
      <trees>
        <_>
          <_>
            <feature>
              <rects>
                <_>
                  0 9 24 10 -1.</_>
                <_>
                  8 9 8 10 3.</_></rects>
              <tilted>0</tilted></feature>
            <threshold>0.1449511945247650</threshold>
            <left_val>-0.8941503763198853</left_val>
            <right_val>0.8004977703094482</right_val></_></_>
        <_>
          <_>
            <feature>
              <rects>
                <_>
                  22 6 2 2 -1.</_>
                <_>
                  22 6 2 1 2.</_></rects>
              <tilted>1</tilted></feature>
            <threshold>-7.4278083047829568e-005</threshold>
            <left_val>0.1877942979335785</left_val>
            <right_val>-0.3579201102256775</right_val></_></_></trees>
      <stage_threshold>-0.7063562273979187</stage_threshold>
      <parent>2</parent>
      <next>-1</next></_>
    <_>
      <trees>
        <_>
          <_>
            <feature>
              <rects>
                <_>
                  0 3 24 16 -1.</_>
                <_>
                  8 3 8 16 3.</_></rects>
              <tilted>0</tilted></feature>
            <threshold>0.2126134037971497</threshold>
            <left_val>-0.8879055976867676</left_val>
            <right_val>0.7149633765220642</right_val></_></_>
        <_>
          <_>
            <feature>
              <rects>
                <_>
                  17 1 7 16 -1.</_>
                <_>
                  17 5 7 8 2.</_></rects>
              <tilted>0</tilted></feature>
            <threshold>5.1807151176035404e-003</threshold>
            <left_val>0.2488490939140320</left_val>
            <right_val>-0.8625233769416809</right_val></_></_></trees>
      <stage_threshold>-0.6390563845634460</stage_threshold>
      <parent>3</parent>
      <next>-1</next></_>
    <_>
      <trees>
        <_>
          <_>
            <feature>
              <rects>
                <_>
                  2 5 15 1 -1.</_>
                <_>
                  7 5 5 1 3.</_></rects>
              <tilted>0</tilted></feature>
            <threshold>7.8282002359628677e-003</threshold>
            <left_val>-0.8024262785911560</left_val>
            <right_val>0.8223791718482971</right_val></_></_>
        <_>
          <_>
            <feature>
              <rects>
                <_>
                  12 12 8 6 -1.</_>
                <_>
                  16 12 4 3 2.</_>
                <_>
                  12 15 4 3 2.</_></rects>
              <tilted>0</tilted></feature>
            <threshold>-8.3205308765172958e-003</threshold>
            <left_val>-1.</left_val>
            <right_val>0.1749507933855057</right_val></_></_>
        <_>
          <_>
            <feature>
              <rects>
                <_>
                  0 6 4 4 -1.</_>
                <_>
                  0 6 2 2 2.</_>
                <_>
                  2 8 2 2 2.</_></rects>
              <tilted>0</tilted></feature>
            <threshold>2.0834410097450018e-003</threshold>
            <left_val>-0.6885318756103516</left_val>
            <right_val>0.8023288846015930</right_val></_></_></trees>
      <stage_threshold>0.1748533993959427</stage_threshold>
      <parent>4</parent>
      <next>-1</next></_>
    <_>
      <trees>
        <_>
          <_>
            <feature>
              <rects>
                <_>
                  2 4 20 15 -1.</_>
                <_>
                  7 4 10 15 2.</_></rects>
              <tilted>0</tilted></feature>
            <threshold>0.1501549035310745</threshold>
            <left_val>-0.7794970273971558</left_val>
            <right_val>0.6468693017959595</right_val></_></_>
        <_>
          <_>
            <feature>
              <rects>
                <_>
                  3 7 19 9 -1.</_>
                <_>
                  3 10 19 3 3.</_></rects>
              <tilted>0</tilted></feature>
            <threshold>-0.0502060018479824</threshold>
            <left_val>0.7481191754341126</left_val>
            <right_val>-0.6681753993034363</right_val></_></_></trees>
      <stage_threshold>-0.0313778482377529</stage_threshold>
      <parent>5</parent>
      <next>-1</next></_></stages></car70>
</opencv_storage>
